tree
version=v2
num_class=1
num_tree_per_iteration=1
label_index=0
max_feature_idx=627
objective=binary sigmoid:1
feature_names=x_1 x_2 x_3 x_4 x_5 x_6 x_7 x_8 x_9 x_10 x_11 x_12 x_13 x_14 x_15 x_16 x_17 x_18 x_19 x_20 x_21 x_22 x_23 x_24 x_25 x_26 x_27 x_28 x_29 x_30 x_31 x_32 x_33 x_34 x_35 x_36 x_37 x_38 x_39 x_40 x_41 x_42 x_43 x_44 x_45 x_46 x_47 x_48 x_49 x_50 x_51 x_52 x_53 x_54 x_55 x_56 x_57 x_58 x_59 x_60 x_61 x_62 x_63 x_64 x_65 x_66 x_67 x_68 x_69 x_70 x_71 x_72 x_73 x_74 x_75 x_76 x_77 x_78 x_79 x_80 x_81 x_82 x_83 x_84 x_85 x_86 x_87 x_88 x_89 x_90 x_91 x_92 x_93 x_94 x_95 x_96 x_97 x_98 x_99 x_100 x_101 x_102 x_103 x_104 x_105 x_106 x_107 x_108 x_109 x_110 x_111 x_112 x_113 x_114 x_115 x_116 x_117 x_118 x_119 x_120 x_121 x_122 x_123 x_124 x_125 x_126 x_127 x_128 x_129 x_130 x_131 x_132 x_133 x_134 x_135 x_136 x_137 x_138 x_139 x_140 x_141 x_142 x_143 x_144 x_145 x_146 x_147 x_148 x_149 x_150 x_151 x_152 x_153 x_154 x_155 x_156 x_157 x_1 x_2 x_3 x_4 x_5 x_6 x_7 x_8 x_9 x_10 x_11 x_12 x_13 x_14 x_15 x_16 x_17 x_18 x_19 x_20 x_21 x_22 x_23 x_24 x_25 x_26 x_27 x_28 x_29 x_30 x_31 x_32 x_33 x_34 x_35 x_36 x_37 x_38 x_39 x_40 x_41 x_42 x_43 x_44 x_45 x_46 x_47 x_48 x_49 x_50 x_51 x_52 x_53 x_54 x_55 x_56 x_57 x_58 x_59 x_60 x_61 x_62 x_63 x_64 x_65 x_66 x_67 x_68 x_69 x_70 x_71 x_72 x_73 x_74 x_75 x_76 x_77 x_78 x_79 x_80 x_81 x_82 x_83 x_84 x_85 x_86 x_87 x_88 x_89 x_90 x_91 x_92 x_93 x_94 x_95 x_96 x_97 x_98 x_99 x_100 x_101 x_102 x_103 x_104 x_105 x_106 x_107 x_108 x_109 x_110 x_111 x_112 x_113 x_114 x_115 x_116 x_117 x_118 x_119 x_120 x_121 x_122 x_123 x_124 x_125 x_126 x_127 x_128 x_129 x_130 x_131 x_132 x_133 x_134 x_135 x_136 x_137 x_138 x_139 x_140 x_141 x_142 x_143 x_144 x_145 x_146 x_147 x_148 x_149 x_150 x_151 x_152 x_153 x_154 x_155 x_156 x_157 x_1 x_2 x_3 x_4 x_5 x_6 x_7 x_8 x_9 x_10 x_11 x_12 x_13 x_14 x_15 x_16 x_17 x_18 x_19 x_20 x_21 x_22 x_23 x_24 x_25 x_26 x_27 x_28 x_29 x_30 x_31 x_32 x_33 x_34 x_35 x_36 x_37 x_38 x_39 x_40 x_41 x_42 x_43 x_44 x_45 x_46 x_47 x_48 x_49 x_50 x_51 x_52 x_53 x_54 x_55 x_56 x_57 x_58 x_59 x_60 x_61 x_62 x_63 x_64 x_65 x_66 x_67 x_68 x_69 x_70 x_71 x_72 x_73 x_74 x_75 x_76 x_77 x_78 x_79 x_80 x_81 x_82 x_83 x_84 x_85 x_86 x_87 x_88 x_89 x_90 x_91 x_92 x_93 x_94 x_95 x_96 x_97 x_98 x_99 x_100 x_101 x_102 x_103 x_104 x_105 x_106 x_107 x_108 x_109 x_110 x_111 x_112 x_113 x_114 x_115 x_116 x_117 x_118 x_119 x_120 x_121 x_122 x_123 x_124 x_125 x_126 x_127 x_128 x_129 x_130 x_131 x_132 x_133 x_134 x_135 x_136 x_137 x_138 x_139 x_140 x_141 x_142 x_143 x_144 x_145 x_146 x_147 x_148 x_149 x_150 x_151 x_152 x_153 x_154 x_155 x_156 x_157 x_1 x_2 x_3 x_4 x_5 x_6 x_7 x_8 x_9 x_10 x_11 x_12 x_13 x_14 x_15 x_16 x_17 x_18 x_19 x_20 x_21 x_22 x_23 x_24 x_25 x_26 x_27 x_28 x_29 x_30 x_31 x_32 x_33 x_34 x_35 x_36 x_37 x_38 x_39 x_40 x_41 x_42 x_43 x_44 x_45 x_46 x_47 x_48 x_49 x_50 x_51 x_52 x_53 x_54 x_55 x_56 x_57 x_58 x_59 x_60 x_61 x_62 x_63 x_64 x_65 x_66 x_67 x_68 x_69 x_70 x_71 x_72 x_73 x_74 x_75 x_76 x_77 x_78 x_79 x_80 x_81 x_82 x_83 x_84 x_85 x_86 x_87 x_88 x_89 x_90 x_91 x_92 x_93 x_94 x_95 x_96 x_97 x_98 x_99 x_100 x_101 x_102 x_103 x_104 x_105 x_106 x_107 x_108 x_109 x_110 x_111 x_112 x_113 x_114 x_115 x_116 x_117 x_118 x_119 x_120 x_121 x_122 x_123 x_124 x_125 x_126 x_127 x_128 x_129 x_130 x_131 x_132 x_133 x_134 x_135 x_136 x_137 x_138 x_139 x_140 x_141 x_142 x_143 x_144 x_145 x_146 x_147 x_148 x_149 x_150 x_151 x_152 x_153 x_154 x_155 x_156 x_157
feature_infos=[0:0.875] [6.3574138040645102e-05:0.99999152344826103] [0:5] [0:6] [0:3] [0:0] [0:10] [0:9] [0:3] [0:6] [0:4] [0:0] [0:19] [0:14] [0:8] [0:8] [0:4] [0:0] [0:15] [0:12] [0:6] [0:6] [0:0] [0:32] [0:8] [0:8] [0:4] [0:0] [0:24] [0:16] [0:6] [0:9] [0:5] [0:0] [0:64] [0:28] [0:4] [0:21] [0:10] [0:10] [0:15] [0:15] [0:10] [0:10] [0:10] [0:10] [0:15] [1:10] [0:4] [0:10] [0:15] [0:15] [0:15] [0:15] [0:15] [0:15] [0:15] [1:10] [0:10] [0:10] [0:5] [0:5] [0:5] [0:10] [0:10] [0:10] [0:10] [0:10] [0:10] [0:9] [0:7] [0:10] [0:7] [0:10] [0:8] [0:10] [0:10] [1:8] [0:9] [0:1] [0.502722323049002:1] [1:5] [1:10] [1:16] [1:6] [1:10] [1:6] [1:15] [1:17] [1:3] [1:5] none [0:1] none [0:1] [1:2] [1:3] [1:3] [1:2] [1:2] [1:2] none none none [0:2] none none none none none none none none none none none none none none none none none none none none none none none none none none none none none none none none none [1:2] [1:2] [1:6] [1:2] [1:2] [1:3] [1:2] [1:2] [1:4] [1:3] [1:4] [1:4] [1:1] [1:2] [1:3] [1:3] [1:3] [1:3] [1:11] [0:0.875] [6.3574138040645102e-05:0.99999152344826103] [0:5] [0:6] [0:3] [0:0] [0:10] [0:9] [0:3] [0:6] [0:4] [0:0] [0:19] [0:14] [0:8] [0:8] [0:4] [0:0] [0:15] [0:12] [0:6] [0:6] [0:0] [0:32] [0:8] [0:8] [0:4] [0:0] [0:24] [0:16] [0:6] [0:9] [0:5] [0:0] [0:64] [0:28] [0:4] [0:21] [0:10] [0:10] [0:15] [0:15] [0:10] [0:10] [0:10] [0:10] [0:15] [1:10] [0:4] [0:10] [0:15] [0:15] [0:15] [0:15] [0:15] [0:15] [0:15] [1:10] [0:10] [0:10] [0:5] [0:5] [0:5] [0:10] [0:10] [0:10] [0:10] [0:10] [0:10] [0:9] [0:7] [0:10] [0:7] [0:10] [0:8] [0:10] [0:10] [1:8] [0:9] [0:1] [0.502722323049002:1] [1:5] [1:10] [1:16] [1:6] [1:10] [1:6] [1:15] [1:17] [1:3] [1:5] none [0:1] none [0:1] [1:2] [1:3] [1:3] [1:2] [1:2] [1:2] none none none [0:2] none none none none none none none none none none none none none none none none none none none none none none none none none none none none none none none none none [1:2] [1:2] [1:6] [1:2] [1:2] [1:3] [1:2] [1:2] [1:4] [1:3] [1:4] [1:4] [1:1] [1:2] [1:3] [1:3] [1:3] [1:3] [1:11] [0:0.875] [6.3574138040645102e-05:0.99999152344826103] [0:5] [0:6] [0:3] [0:0] [0:10] [0:9] [0:3] [0:6] [0:4] [0:0] [0:19] [0:14] [0:8] [0:8] [0:4] [0:0] [0:15] [0:12] [0:6] [0:6] [0:0] [0:32] [0:8] [0:8] [0:4] [0:0] [0:24] [0:16] [0:6] [0:9] [0:5] [0:0] [0:64] [0:28] [0:4] [0:21] [0:10] [0:10] [0:15] [0:15] [0:10] [0:10] [0:10] [0:10] [0:15] [1:10] [0:4] [0:10] [0:15] [0:15] [0:15] [0:15] [0:15] [0:15] [0:15] [1:10] [0:10] [0:10] [0:5] [0:5] [0:5] [0:10] [0:10] [0:10] [0:10] [0:10] [0:10] [0:9] [0:7] [0:10] [0:7] [0:10] [0:8] [0:10] [0:10] [1:8] [0:9] [0:1] [0.502722323049002:1] [1:5] [1:10] [1:16] [1:6] [1:10] [1:6] [1:15] [1:17] [1:3] [1:5] none [0:1] none [0:1] [1:2] [1:3] [1:3] [1:2] [1:2] [1:2] none none none [0:2] none none none none none none none none none none none none none none none none none none none none none none none none none none none none none none none none none [1:2] [1:2] [1:6] [1:2] [1:2] [1:3] [1:2] [1:2] [1:4] [1:3] [1:4] [1:4] [1:1] [1:2] [1:3] [1:3] [1:3] [1:3] [1:11] [0:0.875] [6.3574138040645102e-05:0.99999152344826103] [0:5] [0:6] [0:3] [0:0] [0:10] [0:9] [0:3] [0:6] [0:4] [0:0] [0:19] [0:14] [0:8] [0:8] [0:4] [0:0] [0:15] [0:12] [0:6] [0:6] [0:0] [0:32] [0:8] [0:8] [0:4] [0:0] [0:24] [0:16] [0:6] [0:9] [0:5] [0:0] [0:64] [0:28] [0:4] [0:21] [0:10] [0:10] [0:15] [0:15] [0:10] [0:10] [0:10] [0:10] [0:15] [1:10] [0:4] [0:10] [0:15] [0:15] [0:15] [0:15] [0:15] [0:15] [0:15] [1:10] [0:10] [0:10] [0:5] [0:5] [0:5] [0:10] [0:10] [0:10] [0:10] [0:10] [0:10] [0:9] [0:7] [0:10] [0:7] [0:10] [0:8] [0:10] [0:10] [1:8] [0:9] [0:1] [0.502722323049002:1] [1:5] [1:10] [1:16] [1:6] [1:10] [1:6] [1:15] [1:17] [1:3] [1:5] none [0:1] none [0:1] 1:2 1:2:3:-1 2:1:3:-1 1:2:-1 1:2:-1 1:2:-1 none 1:0:-1 none 1:0:2:-1 1:2:-1 1:0:-1 none 1:2:-1 none none none 1:0:-1 none none none 1:2:-1 1:0:-1 1:0:-1 1:2:-1 1:0:-1 2:0:1:-1 2:0:-1 2:1:-1 none none 1:0:-1 2:1:-1 none 1:0:-1 none none none none none 2:1:-1 none none 2:1:-1 1:2:-1 1:5:4:6:2:-1 1:2:-1 1:2:-1 1:2:3:-1 1:2:-1 1:2:-1 1:2:4:-1 1:2:3:-1 1:3:4:-1 1:2:4:-1 1:-1 1:2:-1 1:3:2:-1 1:2:3:-1 1:2:3:-1 2:3:1:-1 3:2:4:1:10:11:-1
tree_sizes=2455 2311 2439 2471 2400 2350 2419 2442 2458 2379 2420 2500 2495 2417 2342 2456 2387 2456 2440 2403 2432 2427 2443 2447

Tree=0
num_leaves=31
num_cat=1
split_feature=79 23 13 197 64 39 139 78 92 94 47 58 79 44 197 313 79 94 59 79 90 365 34 26 626 0 41 0 47 94
split_gain=178.558 55.3109 31.2627 30.5199 24.8517 24.7592 27.9049 19.9286 17.938 16.1066 14.885 18.7522 13.8115 13.911 15.2606 13.5074 12.0969 11.1822 10.5383 9.06286 8.27022 7.61894 11.9727 17.5489 11.5178 7.60741 7.29507 8.07428 7.74031 9.73081
threshold=0.75293427230046961 1.5000000000000002 1.5000000000000002 3.5000000000000004 3.5000000000000004 1.5000000000000002 1.5000000000000002 3.5000000000000004 0.77604166666666663 0.16489361702127653 4.5000000000000009 1.5000000000000002 0.72124413145539912 4.5000000000000009 2.5000000000000004 2.5000000000000004 0.82218309859154903 0.22872340425531898 2.5000000000000004 0.79518779342723012 1.5000000000000002 5.5000000000000009 4.5000000000000009 1.0000000180025095e-35 0 0.42708333333333359 2.5000000000000004 0.21875000000000003 4.5000000000000009 0.34574468085106408
decision_type=2 10 10 8 8 10 8 10 8 8 10 10 2 10 8 8 2 8 8 2 8 8 10 10 9 2 10 2 10 10
left_child=1 3 19 5 7 6 -1 9 -8 -3 -11 -12 13 14 17 -10 21 -7 -19 20 -2 22 -4 24 -24 -17 27 28 -14 -30
right_child=2 4 16 -5 -6 12 8 -9 15 10 11 -13 26 -15 -16 25 -18 18 -20 -21 -22 -23 23 -25 -26 -27 -28 -29 29 -31
leaf_value=-3.0534594176497021 -3.0743938044318959 -3.023375404625213 -3.0219704454607768 -3.0375758463785809 -3.023375404625213 -3.023375404625213 -3.023375404625213 -3.012533505820727 -3.0377398958095632 -2.8738157565010325 -2.9618839771515741 -2.5151533694335151 -3.0321800933449228 -3.0249426435454208 -3.023375404625213 -2.6682239792585944 -3.0558949352778226 -2.89290045396391 -2.6189980595937321 -3.1148907937331511 -2.932558382853593 -3.023375404625213 -2.5431758479254993 -3.044732488819637 -3.0127676459370241 -2.9290140952066173 -3.0621675604149776 -3.0430832364266251 -2.7889212369803467 -3.023375404625213
leaf_count=88 1556 27 70 793 94 42 51 63 20 100 39 165 65 125 76 235 154 119 82 2429 77 82 50 23 24 64 307 155 111 62
internal_value=0 0.917087 -0.597373 0.602246 2.36339 0.978222 1.91139 2.87015 2.46932 3.32123 3.61945 4.40593 0.569997 1.21481 1.72219 2.87012 0.626652 2.27374 2.70875 -0.724653 -0.425631 1.25936 1.79987 2.76558 3.74221 3.11907 0.121075 0.557025 1.09216 1.58962
internal_count=7348 2883 4465 2395 488 1602 458 394 370 331 304 204 1144 444 319 319 403 243 201 4062 1633 249 167 97 74 299 700 393 238 173
cat_boundaries=0 1
cat_threshold=4
shrinkage=1


Tree=1
num_leaves=31
num_cat=0
split_feature=79 28 66 6 79 520 406 57 55 408 39 234 42 40 47 313 408 79 408 1 1 57 153 96 313 0 42 313 90 42
split_gain=162.349 60.9383 35.5537 27.3384 25.7301 21.7828 23.528 21.5229 16.521 14.6952 13.8354 14.1536 18.2921 19.039 14.5395 13.8155 10.6801 9.49732 8.64133 7.25508 7.93536 7.07476 6.77081 6.6908 8.11229 8.60827 8.00683 6.59434 5.2192 5.94699
threshold=0.73884976525821622 1.0000000180025095e-35 4.5000000000000009 1.0000000180025095e-35 0.77758215962441324 2.5000000000000004 0.38020833333333359 2.5000000000000004 5.5000000000000009 0.12234042553191503 3.5000000000000004 2.5000000000000004 3.5000000000000004 3.5000000000000004 9.5000000000000018 1.5000000000000002 0.16489361702127653 0.79753521126760607 0.17553191489361702 0.8167305939943631 0.43948589713704456 1.5000000000000002 1.5000000000000002 1.5000000000000002 3.5000000000000004 0.13541666666666655 4.5000000000000009 2.5000000000000004 1.0000000180025095e-35 5.5000000000000009
decision_type=2 10 8 10 2 10 8 10 10 8 8 10 10 8 8 10 8 2 10 2 2 10 10 8 10 2 10 8 10 10
left_child=1 10 5 17 15 6 -3 8 9 -8 11 22 -13 14 16 21 -14 28 19 20 -7 -5 -1 24 25 -17 -27 -4 29 -2
right_child=3 2 27 4 -6 18 7 -9 -10 -11 -12 12 13 -15 -16 23 -18 -19 -20 -21 -22 -23 -24 -25 -26 26 -28 -29 -30 -31
leaf_value=-0.025754740187715348 0.15967566205429326 0 -0.049150357853479598 0.23271179963994496 -0.04190843190447191 -0 -0 -0.027867442974858877 -0 0.39306617271039124 -0.058029506772576039 -0 0 0 -0.018767412066714631 -0.02473471594088213 0.3643026469247983 -0.096531685887444874 -0.021876213527325265 -0 0.30730606245640152 -0 0.095803261624476596 -0.041657255883881208 -0.047897809705316791 -0 0.31025696011084197 0.087648442254162975 -0.05134077214549846 -0.046109367758298693
leaf_count=392 41 54 73 144 828 20 21 22 22 339 283 168 20 95 21 24 120 1976 71 26 49 27 107 140 39 23 51 251 1865 36
internal_value=0 1.0004 1.82718 -0.506913 0.087208 2.43184 2.92975 3.27103 3.51205 3.72975 0.281025 0.555146 1.15906 1.89279 2.73849 0.965616 3.20971 -0.711332 0.826535 1.61167 2.28119 1.95302 0.00142116 0.222671 0.931904 1.61153 2.30308 0.515278 -0.454422 0.55288
internal_count=7348 2154 948 5194 1276 624 458 404 382 360 1206 923 424 256 161 448 140 3918 166 95 69 171 499 277 137 98 74 324 1942 77
shrinkage=0.1


Tree=2
num_leaves=31
num_cat=0
split_feature=79 37 7 253 80 249 79 203 79 80 251 58 204 18 79 51 315 251 0 218 78 79 82 218 0 251 80 199 210 21
split_gain=129.229 52.8486 36.8673 27.1573 19.9928 14.246 14.5954 11.8661 11.5879 10.7355 12.6395 11.1753 10.0875 9.84867 11.9684 11.2398 9.18564 8.67391 8.27835 10.4222 11.3641 7.58014 7.40845 7.30406 7.25517 6.67271 6.22191 6.04339 6.63228 5.93095
threshold=0.75176056338028208 1.5000000000000002 1.5000000000000002 1.5000000000000002 0.88112522686025418 0.067708333333333356 0.71537558685446012 6.5000000000000009 0.77171361502347402 0.9373865698729581 0.13297872340425554 5.5000000000000009 9.5000000000000018 1.0000000180025095e-35 0.7282863849765262 1.5000000000000002 0.43948589713704456 0.16489361702127653 0.13541666666666655 1.5000000000000002 3.5000000000000004 0.72946009389671407 1.5000000000000002 3.5000000000000004 0.093750000000000167 0.28191489361702154 0.96460980036297661 7.5000000000000009 6.5000000000000009 1.0000000180025095e-35
decision_type=2 10 10 8 10 10 2 10 2 10 8 10 8 10 2 10 2 8 2 10 8 2 10 10 2 10 10 10 10 8
left_child=1 3 23 5 7 6 9 -3 29 10 -1 -12 17 21 -15 -16 -17 -6 -19 -20 -21 27 -18 -2 25 -5 -11 28 -8 -4
right_child=2 4 8 24 12 -7 13 -9 -10 26 11 -13 -14 14 15 16 22 18 19 20 -22 -23 -24 -25 -26 -27 -28 -29 -30 -31
leaf_value=-0.040578451840154378 -0.07224570645743536 0.4306661228740491 0.2726403603678394 0.23413825417859255 -0.032145398005570591 -0.052039576362893407 0.11914204023133784 0.0040158598282177575 0.02483188510993126 -0.0056636519928756441 0.24316348832138518 0 -0.011316824426539966 0.0058185288684476522 -0.027343004564405915 0 0.37098638350509572 0.034086393546082942 0.037127830116148695 0.32128175983130447 0.0094461815212051933 -0.016076250009361599 0.0057898633008614539 0.089609877503646101 -0.056666107228478473 -0.024881637063807444 0.14962483645984084 -0.056349947890272367 -0.030584812298511968 -0
leaf_count=31 4073 62 56 21 26 172 261 21 338 121 253 42 50 107 21 30 69 69 54 122 39 485 20 43 568 23 49 48 54 20
internal_value=0 0.72206 -0.539067 0.419439 1.9576 0.692176 0.817104 3.65053 0.751298 1.41166 1.8585 2.10877 1.39311 0.48485 1.2023 2.01285 2.5069 1.65283 1.83702 2.2192 2.72355 0.20631 3.10444 -0.69547 -0.40028 1.05307 0.407549 0.678208 0.908839 2.14707
internal_count=7348 2818 4530 2375 443 1763 1591 83 414 496 326 295 360 1095 247 140 119 310 284 215 161 848 89 4116 612 44 170 363 315 76
shrinkage=0.1


Tree=3
num_leaves=31
num_cat=0
split_feature=79 28 194 313 53 53 53 178 313 47 201 218 42 18 79 203 12 25 0 1 201 96 54 42 408 237 408 237 66 51
split_gain=98.2856 34.1428 31.1952 19.5772 17.9504 15.6651 14.9648 14.3038 12.5084 15.6553 11.4018 13.8598 11.2637 10.1118 9.67959 10.844 9.94561 9.49041 8.88019 8.85027 10.7099 8.05424 6.80105 6.36549 6.08618 5.71575 5.64312 7.17813 5.61142 12.0811
threshold=0.75176056338028208 1.0000000180025095e-35 3.5000000000000004 7.0000000000000009 6.5000000000000009 2.5000000000000004 5.5000000000000009 1.0000000180025095e-35 1.0000000180025095e-35 6.5000000000000009 4.5000000000000009 1.5000000000000002 3.5000000000000004 1.0000000180025095e-35 0.82218309859154903 7.5000000000000009 1.0000000180025095e-35 1.5000000000000002 0.26041666666666657 0.61076098243234667 4.5000000000000009 1.5000000000000002 3.5000000000000004 9.5000000000000018 0.058510638297872307 0.94827586206896564 0.07978723404255321 0.91379310344827613 1.5000000000000002 3.5000000000000004
decision_type=2 10 10 8 8 8 8 10 10 10 10 10 8 10 2 10 10 10 2 2 10 10 10 8 10 10 10 8 8 10
left_child=1 5 13 7 10 8 18 -3 9 24 11 12 -5 -2 15 26 -17 -9 -4 20 -11 -18 -7 -23 -1 -6 27 -15 -13 -30
right_child=2 3 6 4 25 22 -8 17 -10 19 -12 28 -14 14 -16 16 21 -19 -20 -21 -22 23 -24 -25 -26 -27 -28 -29 29 -31
leaf_value=0.086633097326395653 -0.078690570729710169 -0.0058996566695746454 0.42530839203821824 0.20998837480759192 -0.051912141143139558 -0.059323252680504729 0.022692074140983187 0.22250944462701319 -0.022643913978346114 0.38675429460909683 0.025542630285578623 0.18067658472268366 0.025650937503151908 0.2317860761124646 -0.077657694902766639 -0.039569141621335027 0.24900573064490428 -0 0.0042354936969417785 0.085396298595941403 0 -0.038806824324780775 0.018468616083828878 0.18767752828103357 -0.033952018430945134 0.12489219208182917 -0.047591752137189546 -0.031588990662650425 0.4103296983259716 0.027363387450355589
leaf_count=133 2976 364 24 79 92 544 155 86 227 55 105 178 145 25 532 82 75 45 21 116 20 73 367 25 139 29 510 28 74 24
internal_value=0 0.596125 -0.499684 1.06727 1.4453 0.118929 1.16732 0.345664 0.614801 1.00646 1.69404 1.90978 1.03382 -0.608014 -0.231294 0.0761074 0.897487 1.50309 2.98439 1.9384 3.10223 1.49603 -0.271829 0.232641 0.257681 0 -0.282855 0.931971 2.47426 3.43326
internal_count=7348 2822 4526 1221 726 1601 200 495 690 463 605 500 224 4326 1350 818 255 131 45 191 75 173 911 98 272 121 563 53 276 98
shrinkage=0.1


Tree=4
num_leaves=31
num_cat=0
split_feature=79 98 178 92 66 29 209 68 94 96 204 61 139 157 59 80 80 78 61 96 18 38 298 50 34 29 155 94 215 44
split_gain=82.2031 25.538 26.6884 24.0132 16.7939 14.8911 11.678 10.9973 11.0639 9.73823 13.9685 8.30636 8.05971 8.9283 7.82377 9.36815 10.2297 10.2658 7.12425 6.51274 6.20674 7.08054 6.51109 5.8174 5.77435 6.95679 5.55154 5.5199 5.50507 10.0983
threshold=0.77053990610328615 1.5000000000000002 2.5000000000000004 0.046875000000000007 5.5000000000000009 3.5000000000000004 2.5000000000000004 2.5000000000000004 0.61170212765957455 1.5000000000000002 2.5000000000000004 3.5000000000000004 1.0000000180025095e-35 0.36458333333333359 3.5000000000000004 0.95190562613430107 0.86842105263157909 2.5000000000000004 2.5000000000000004 1.5000000000000002 5.5000000000000009 6.5000000000000009 1.0000000180025095e-35 2.5000000000000004 1.5000000000000002 2.5000000000000004 2.5000000000000004 0.12234042553191503 5.5000000000000009 1.5000000000000002
decision_type=2 10 8 10 8 10 8 10 10 8 10 10 10 2 10 10 8 10 10 10 10 10 10 10 10 10 10 8 10 8
left_child=1 2 3 4 7 11 12 14 9 10 -9 -2 13 19 15 16 -1 26 -6 23 21 22 -7 27 -20 -26 -18 -4 -8 -30
right_child=5 -3 6 -5 18 20 28 8 -10 -11 -12 -13 -14 -15 -16 -17 17 -19 24 -21 -22 -23 -24 -25 25 -27 -28 -29 29 -31
leaf_value=-0.052566897468102496 -0.076180298147851294 0.38008561226897641 -0.028571347702327849 -0.048785196170069517 -0.015525211163217352 0.24920191254641449 -0.061792523787589121 -0 -0.028746105070669565 0.033756230826980038 0.33913760345428212 0.079311705318711498 -0.059893197656669561 -0.033118969745001912 0.026532520982265741 0 0.18278322783533241 0 -0.025174800733117366 -0.00045576517196178033 -0.037993269514635032 -0.021402798226322985 0 -0 0.25217557638579974 0.032956244050586829 0 0.14087670248782816 0.24267097196499943 -0.018097324592184411
leaf_count=26 3331 27 26 271 386 59 750 22 21 49 105 53 149 170 266 91 349 69 41 140 91 57 54 63 39 85 37 305 23 193
internal_value=0 0.418717 0.375096 0.691941 0.86686 -0.606965 -0.0424891 1.12701 2.03449 2.34191 2.88386 -0.716966 0.311206 0.510144 0.90591 1.14312 1.34973 1.48509 0.178929 0.78209 0.418373 0.982829 1.60419 1.03848 0.855347 1.27629 1.69884 1.25625 -0.424414 0.203374
internal_count=7348 3703 3676 1857 1586 3645 1819 1035 197 176 127 3384 853 704 838 572 481 455 551 534 261 170 113 394 165 124 386 331 966 216
shrinkage=0.1


Tree=5
num_leaves=31
num_cat=0
split_feature=550 98 220 96 6 1 201 196 157 61 92 62 208 58 199 35 394 201 201 157 394 1 1 53 49 94 157 94 1 394
split_gain=64.5813 18.5233 18.0145 18.305 16.5363 13.2634 17.1933 16.3016 14.7992 12.8887 10.9652 9.26015 8.98166 9.88488 8.89308 8.48419 9.64761 7.9565 7.57764 7.84442 8.51152 6.76037 8.65163 6.26053 5.82615 5.31691 5.21447 5.62895 5.06022 6.35332
threshold=0.76232394366197209 1.5000000000000002 1.5000000000000002 1.5000000000000002 1.0000000180025095e-35 0.42509271228464302 4.5000000000000009 3.5000000000000004 0.11458333333333352 2.5000000000000004 0.026041666666666654 3.5000000000000004 4.5000000000000009 2.5000000000000004 5.5000000000000009 6.5000000000000009 0.93012704174228711 4.5000000000000009 4.5000000000000009 0.13541666666666655 0.94464609800363009 0.55454237216300417 0.78126046324355258 8.5000000000000018 2.5000000000000004 0.35638297872340402 0.36458333333333359 0.25000000000000006 0.65652164699400306 0.95009074410163319
decision_type=2 10 8 8 10 2 10 8 2 10 10 8 8 10 10 8 10 10 10 2 8 2 2 8 10 8 2 8 2 10
left_child=1 2 3 5 -2 6 7 8 -1 -4 11 14 13 25 18 -6 17 -17 19 20 -7 -20 -23 28 -13 -10 -21 -28 29 -11
right_child=4 -3 9 -5 15 10 -8 -9 12 23 -12 24 -14 -15 -16 16 -18 -19 21 26 -22 22 -24 -25 -26 -27 27 -29 -30 -31
leaf_value=0 -0.07360523689174811 0.28999074020176885 -0.038272381796381039 -0.021573554917598103 -0.014644699432727452 0.058003419748361762 -0.059379736746636262 -0.046314926815847937 -0 0.17416078045779582 -0.040355940139852574 0.24719789338627762 0.01862151721868208 0.46852642721188764 0 0.33126539878627792 -0.016450387364852982 -0 -0 0 0.25814514145607359 0.30108004655000148 0.043596926236059728 -0.058649278549472598 0 0.22122824833499008 -0.042811599606082329 0.12617947882707972 0 -0.0037813463435128394
leaf_count=38 2997 27 909 448 914 144 44 32 22 104 197 40 28 49 360 36 45 24 30 333 46 61 55 46 20 50 24 111 85 29
internal_value=0 0.393182 0.348286 0.560177 -0.507548 0.738688 1.56971 1.98118 2.36931 -0.0929768 0.563361 0.686324 2.87102 3.2777 0.566799 0.00667825 1.2005 2.28501 0.779373 0.574013 1.23785 1.66583 2.04171 0.639464 1.91952 1.72228 0.271426 0.892893 0.914023 1.34995
internal_count=7348 3332 3305 2132 4016 1684 263 219 187 1173 1421 1224 149 121 1164 1019 105 60 804 658 190 146 116 264 60 72 468 135 218 133
shrinkage=0.1


Tree=6
num_leaves=31
num_cat=2
split_feature=79 92 98 96 15 164 61 67 624 0 40 0 59 237 46 155 626 63 313 51 0 1 51 237 348 42 237 39 239 78
split_gain=60.9333 16.2732 13.6487 14.5426 12.909 12.7974 9.56286 9.41135 12.1909 10.2837 11.0409 10.0055 7.5121 7.89734 6.54593 11.7455 10.0291 9.11602 8.10711 8.60432 6.85794 7.55492 7.21792 6.41986 7.23391 6.63359 6.23643 6.01439 7.89468 7.27843
threshold=0.77523474178403762 0.057291666666666657 1.5000000000000002 1.5000000000000002 1.5000000000000002 1.5000000000000002 3.5000000000000004 1.5000000000000002 0 0.17708333333333351 3.5000000000000004 0.11458333333333352 1.5000000000000002 0.93194192377495522 7.5000000000000009 1.5000000000000002 1 2.5000000000000004 3.5000000000000004 5.5000000000000009 0.11458333333333352 0.68825573756595804 2.5000000000000004 0.90834845735027214 1.5000000000000002 3.5000000000000004 0.93375680580762277 7.5000000000000009 1.5000000000000002 7.5000000000000009
decision_type=2 10 10 8 8 10 10 10 9 2 10 2 10 8 10 10 9 10 10 10 2 2 10 10 8 10 10 8 8 10
left_child=1 2 3 4 14 -2 -5 8 -6 10 11 -10 -13 -14 15 20 18 23 19 -16 -1 22 -22 24 -17 -26 -25 28 29 -7
right_child=5 -3 -4 6 7 27 -8 -9 9 -11 -12 12 13 -15 16 17 -18 -19 -20 -21 21 -23 -24 26 25 -27 -28 -29 -30 -31
leaf_value=0 -0.074385012971883616 -0.051346113102647951 0.23371185346798154 -0.0267329308158228 0.17380854533895676 0.18076532577279317 0.14160113339799466 -0.031520084402328008 0.021697872531437404 -0.032028855737919859 -0.068864788539412941 0.0019324855017667085 0.35666674694774009 0.023091376733018087 0.32925012322036573 0.030309047968788801 -0 -0.028781382202182595 -0 0 0.31723769183006989 0.050961465982950205 0.04874480475760809 -0.028416300758194096 0.031232283925186767 0.21948604917513423 0.065464636236802445 -0.048663381018270925 -0.055938513438352266 -0.031782876751697095
leaf_count=34 3143 492 28 930 101 113 40 541 130 333 81 34 40 27 55 134 42 219 20 23 48 61 31 138 41 68 198 128 48 27
internal_value=0 0.306143 0.397047 0.354893 0.507541 -0.6097 -0.125596 0.156342 0.45506 0.194593 0.732163 1.12515 1.99859 2.66538 0.769119 0.644026 1.61394 0.421909 2.19223 2.65414 1.45526 1.76749 2.43709 0.625986 1.04396 1.60169 0.251076 0.232305 0.755548 1.30993
internal_count=7348 3889 3397 3369 2399 3459 970 1287 746 645 312 231 101 67 1112 972 140 798 98 78 174 140 79 579 243 109 336 316 188 140
cat_boundaries=0 1 2
cat_threshold=4 4
shrinkage=0.1


Tree=7
num_leaves=31
num_cat=0
split_feature=550 92 550 212 7 41 80 13 207 80 96 207 212 43 47 35 408 207 382 212 0 61 46 0 47 63 44 382 34 0
split_gain=46.1225 15.8348 15.2306 18.15 12.6593 11.6139 10.4507 9.63837 8.97634 8.13825 7.05685 6.65469 7.92676 10.8247 18.1493 6.2653 5.74572 6.27617 6.94728 12.0941 5.69517 6.90261 5.56789 7.16887 8.67157 6.0894 5.82244 5.42115 5.1869 4.96616
threshold=0.79988262910798114 0.015625000000000003 0.71537558685446012 7.5000000000000009 2.5000000000000004 3.5000000000000004 0.9210526315789469 1.0000000180025095e-35 6.5000000000000009 0.95372050816696907 1.5000000000000002 1.5000000000000002 2.5000000000000004 7.5000000000000009 6.5000000000000009 5.5000000000000009 0.67553191489361708 2.5000000000000004 1.5000000000000002 3.5000000000000004 0.13541666666666655 1.5000000000000002 2.5000000000000004 0.23958333333333351 6.5000000000000009 1.5000000000000002 3.5000000000000004 3.5000000000000004 2.5000000000000004 0.28125000000000006
decision_type=2 10 2 10 10 8 10 8 10 10 8 10 10 8 10 10 10 10 10 8 2 10 10 2 10 8 8 10 10 2
left_child=1 2 5 8 15 16 -6 -5 10 20 11 -4 13 22 -15 -2 17 18 -1 27 -9 -22 23 24 25 26 -13 -20 -14 -7
right_child=4 -3 3 7 6 29 -8 9 -10 -11 -12 12 28 14 -16 -17 -18 -19 19 -21 21 -23 -24 -25 -26 -27 -28 -29 -30 -31
leaf_value=0.093151063448232652 -0.084771983434401024 -0.039531114481762761 -0.042249544791348681 -0.0070076383266900813 0.21765909912538217 -0.03570308188936068 -0.050663631205985084 -0.012188193853462509 -0.090349807256930703 0.28835186500995363 -0.030162208512541696 0.23640641324697081 -0.024126747096167581 -0.0078125577702065335 0.35949065111877593 0.076523162272025158 -0.02480527512604902 0.030876037007803083 0.32907675964861538 -0 -0 0.17904934676250769 -0.00045658689453222312 -0.00071405862346211445 0.018683281415783189 -0 0 0.048602866588966627 0.065391736806869605 0.066630117620424298
leaf_count=229 2417 879 204 134 42 158 44 69 239 57 782 101 569 33 40 36 31 142 56 28 80 112 291 149 125 24 29 23 108 117
internal_value=0 0.214206 0.317859 0.145125 -0.68667 0.746573 0.853554 1.01983 0.00625909 1.40459 0.0833172 0.228581 0.337377 0.603653 2.08373 -0.79464 1.03201 1.12274 1.35831 2.1696 0.866635 1.24391 0.414793 0.695921 1.03772 1.67806 1.98464 2.74651 -0.00929649 0.0292173
internal_count=7348 4809 3930 3146 2539 784 86 452 2694 318 2455 1673 1469 792 73 2453 509 478 336 107 261 192 719 428 279 154 130 79 677 275
shrinkage=0.1


Tree=8
num_leaves=31
num_cat=2
split_feature=79 79 6 156 65 37 139 79 249 42 311 53 315 53 0 58 94 52 568 54 204 61 238 353 566 43 79 80 161 202
split_gain=47.0403 16.8116 11.481 12.1015 11.0138 10.1101 9.03253 8.76294 8.59299 9.17291 6.8188 6.51169 6.54643 6.08943 5.9708 5.87168 5.82626 9.31176 7.04869 5.37208 5.79017 5.21333 5.95655 6.00175 5.1878 5.11008 6.28731 4.99499 5.3447 4.93149
threshold=0.73180751173708913 0.82218309859154903 1.0000000180025095e-35 7.0000000000000009 5.5000000000000009 1.5000000000000002 1.0000000180025095e-35 0.71537558685446012 0.47916666666666652 7.5000000000000009 2.5000000000000004 6.5000000000000009 0.68540761618173718 8.5000000000000018 0.15625000000000003 1.5000000000000002 0.10106382978723392 2.5000000000000004 0 5.5000000000000009 7.5000000000000009 2.5000000000000004 2.0000000000000004 3.5000000000000004 1 9.5000000000000018 0.78227699530516415 0.91197822141560814 1.0000000180025095e-35 5.5000000000000009
decision_type=2 2 10 8 8 10 10 2 8 10 10 8 2 8 2 8 10 10 9 10 8 10 8 10 1 10 2 10 8 10
left_child=5 2 16 19 11 7 13 8 -1 21 14 12 24 -7 15 -9 17 18 -2 -4 -21 22 23 -10 -5 26 -22 28 -17 -18
right_child=1 -3 3 4 -6 6 -8 10 9 -11 -12 -13 -14 -15 -16 27 29 -19 -20 20 25 -23 -24 -25 -26 -27 -28 -29 -30 -31
leaf_value=-0.049586694094044988 0.1554326634880826 -0.083803488611631158 -0.057125863082369437 0.19090825344927348 0.31130680299103763 0.13539673322160278 -0.060607457464401576 0.14314771353613193 0.093717184799868014 0.21173439038545633 0.10546805681796388 -0.04889115982457564 -0 -0.0027924232385295907 -0.046128305604823651 -0.051120165876230764 -0.052941815455165124 -0.046122516049870145 -0 -0.019039846527522986 0.020308802535318176 -0.020078853250329376 -0.059864349469358008 -0.037228352761557691 -0 -0.0027583206967465887 0.27061459515162661 -0.068242263914846099 0.11837239912802702 0.098326621521213922
leaf_count=128 91 1853 295 68 28 211 27 43 408 53 58 63 67 40 468 28 2230 330 101 234 51 80 40 45 28 54 34 93 67 32
internal_value=0 -0.32936 -0.152764 0.227793 0.907126 0.457812 1.00439 0.291985 0.570324 0.717153 -0.0180954 0.524215 0.891043 1.18742 -0.168424 0.312236 -0.355021 0.0767174 0.818 -0.10776 0.215402 0.536838 0.687832 0.804317 1.45437 0.874218 1.42953 -0 0.564194 -0.485824
internal_count=7348 5559 3706 922 254 1789 278 1511 754 626 757 226 163 251 699 231 2784 522 192 668 373 573 493 453 96 139 85 188 95 2262
cat_boundaries=0 1 2
cat_threshold=2 2
shrinkage=0.1


Tree=9
num_leaves=31
num_cat=0
split_feature=139 35 373 39 60 55 1 47 239 53 1 51 394 142 47 37 90 138 394 51 79 1 92 28 49 94 312 394 56 83
split_gain=32.2977 22.1385 14.7831 12.3059 12.0801 9.96005 7.73731 10.0272 7.8719 7.68187 7.20458 6.20469 6.22101 5.94741 5.38195 5.30756 5.18692 5.59503 5.13822 6.99422 7.02707 6.23948 6.20197 4.90997 4.55031 11.7282 10.0204 6.43434 4.66494 4.44932
threshold=1.0000000180025095e-35 4.5000000000000009 4.5000000000000009 3.5000000000000004 2.5000000000000004 7.5000000000000009 0.76809002097946555 5.5000000000000009 4.5000000000000009 1.5000000000000002 0.56421411769692065 2.5000000000000004 0.87205081669691509 1.5000000000000002 8.5000000000000018 1.0000000180025095e-35 1.5000000000000002 1.5000000000000002 0.94464609800363009 3.5000000000000004 0.70715962441314562 0.44218355972790258 0.026041666666666654 1.0000000180025095e-35 1.5000000000000002 0.16489361702127653 1.0000000000000001e+300 0.91379310344827613 2.5000000000000004 2.5000000000000004
decision_type=10 10 8 10 8 10 2 10 8 8 2 10 10 8 10 10 8 10 8 10 2 2 10 10 10 10 8 10 10 8
left_child=1 2 3 6 -2 9 7 23 18 -4 -3 14 -13 -12 15 -7 17 -5 19 20 -9 -20 -22 -1 25 -8 -26 -27 -28 -6
right_child=4 10 5 16 29 11 24 8 -10 -11 13 12 -14 -15 -16 -17 -18 -19 21 -21 22 -23 -24 -25 26 27 28 -29 -30 -31
leaf_value=-0.018966548637807144 -0.063535698888131473 0.027231014579925567 0.10672976983660509 0.11093912298469795 0.12287449528074151 -0 -0.018491541891994586 -0 -0.058276377747430885 -0.058255434616905723 0.22247556124111398 0.15266368788720633 -0.02299228314807239 0 -0 0.26590132065167843 0.081452902239059946 -0.045170013553584763 0.019157940541341151 -0 0.14814283250650429 0.21843582434779113 -0.03061519550356381 0.055936326373561863 -0.059174479988144985 0 0.21488854713987618 0.22571359942362723 -0 -0.036903591116240357
leaf_count=300 2528 87 30 26 90 34 119 44 44 1254 100 40 442 22 36 36 58 847 45 161 231 107 33 192 286 39 20 43 23 31
internal_value=0 0.194855 0.109163 0.292956 -0.525374 -0.253419 0.460441 0.636607 0.943704 -0.490118 1.34688 0.307081 0 1.88522 1.26285 1.92317 -0.193352 -0.33501 1.04675 0.772475 1.04592 1.70655 1.31912 0.175789 0.0410166 0.457337 -0.257114 1.50411 1.24752 0.745473
internal_count=7348 4699 4490 2618 2649 1872 1687 1157 665 1284 209 588 482 122 106 70 931 873 621 469 308 152 264 492 530 201 329 82 43 121
shrinkage=0.1


Tree=10
num_leaves=31
num_cat=0
split_feature=79 62 406 361 79 79 94 34 13 57 77 19 201 94 51 63 79 1 94 80 28 142 94 68 1 201 56 56 79 42
split_gain=37.6132 10.534 10.2841 8.91027 8.54251 6.85638 6.4329 5.86151 5.80065 7.1249 7.81667 5.73678 5.10657 5.17339 5.07937 5.02558 6.6699 11.1088 5.5301 4.97141 4.73743 6.92394 5.10895 4.89767 4.73165 4.64193 4.20883 4.12874 4.57001 4.03069
threshold=0.77758215962441324 3.5000000000000004 0.42187500000000006 5.5000000000000009 0.71185446009389708 0.74706572769953061 0.61170212765957455 2.5000000000000004 1.0000000180025095e-35 1.5000000000000002 5.5000000000000009 2.5000000000000004 9.5000000000000018 0.82446808510638314 3.5000000000000004 1.5000000000000002 0.74237089201877915 0.65913878234334267 0.46276595744680854 0.91560798548094413 1.5000000000000002 1.5000000000000002 0.57978723404255306 2.5000000000000004 0.94345928076458507 3.5000000000000004 3.5000000000000004 2.5000000000000004 0.70246478873239415 8.5000000000000018
decision_type=2 10 8 8 2 2 10 10 10 10 10 10 10 10 8 10 2 2 8 10 8 8 8 10 2 8 10 8 2 8
left_child=2 12 14 5 20 7 -3 -4 15 10 19 -12 13 -2 -1 16 18 29 -6 -10 23 22 -22 -5 -17 -9 27 28 -24 -18
right_child=1 6 3 4 8 -7 -8 25 9 -11 11 -13 -14 -15 -16 24 17 -19 -20 -21 21 -23 26 -25 -26 -27 -28 -29 -30 -31
leaf_value=0 -0.079788622504366774 -0 0.0020166517776359369 -0.016123005986581746 0.047657438993986473 -0.052144986466672441 0.19546880416208468 0.11274982163608008 0.083165900212718261 -0.034539864927630191 0.20598504690053115 0.022746970257777409 0.024300177139401823 0.09411624309664729 -0.084457886358437401 -0.046526864338628612 0.18220353643133927 -0.011621364131026461 -0.044256279609321242 -0.013183558491359344 0.035845431652793081 -0.023058000154671524 0.043288787276886731 0.14487962694137824 0.11573678000171427 -0.011855588585476164 0.26351905645774693 -0 0.23742309715950621 0
leaf_count=394 2899 202 791 69 192 430 25 84 98 68 94 44 173 28 293 459 155 155 203 102 87 35 39 21 22 34 44 35 25 48
internal_value=0 -0.564043 0.208442 0.287824 0.457564 0.0232511 0.334261 0.178978 0.291872 0.623392 0.822064 1.5168 -0.694619 -0.759203 -0.343578 0.0875841 0.29977 0.815881 -0 0.354129 0.924412 1.17134 1.35813 0.165986 -0.302247 0.793831 1.69889 1.05752 1.423 1.51009
internal_count=7348 3327 4021 3334 1995 1339 227 909 1640 406 338 138 3100 2927 687 1234 753 358 395 200 355 265 230 90 481 118 143 99 64 203
shrinkage=0.1


Tree=11
num_leaves=31
num_cat=0
split_feature=236 77 236 80 62 565 55 327 235 180 565 42 253 12 92 80 315 215 43 46 29 42 0 56 32 47 0 565 166 80
split_gain=30.2419 8.592 11.6521 6.22879 5.99448 6.35773 8.99276 9.2289 5.77148 6.58847 5.73553 5.85358 4.86439 7.05421 6.18538 7.73277 8.06183 5.3766 5.19334 5.51388 5.13077 8.81238 6.36264 5.95109 4.6925 7.52986 4.5955 4.62864 4.42067 4.67853
threshold=0.77523474178403762 2.5000000000000004 0.71537558685446012 0.96098003629764106 2.5000000000000004 0.37765957446808501 6.5000000000000009 1.5000000000000002 1.5000000000000002 2.5000000000000004 0.22872340425531898 7.5000000000000009 1.5000000000000002 3.5000000000000004 0.046875000000000007 0.91560798548094413 0.82871855729089405 3.5000000000000004 4.5000000000000009 7.5000000000000009 1.5000000000000002 3.5000000000000004 0.13541666666666655 5.5000000000000009 1.0000000180025095e-35 5.5000000000000009 0.11458333333333352 0.16489361702127653 1.5000000000000002 0.96642468239564416
decision_type=2 10 2 8 10 10 10 10 10 10 10 10 10 10 10 10 2 10 10 10 8 10 2 8 10 10 2 8 8 8
left_child=1 8 26 12 -2 -6 -7 -8 10 -10 -1 -12 14 -14 15 20 18 -18 -17 -20 21 -4 -22 24 25 -24 -3 -28 -5 -30
right_child=4 2 3 28 5 6 7 -9 9 -11 11 -13 13 -15 -16 16 17 -19 19 -21 22 -23 23 -25 -26 -27 27 -29 29 -31
leaf_value=0.033173004565721753 -0.071240286061666477 0.0052172775126421399 -0.01923541312402904 0.12367528387423971 -0.049325940478146646 -0.067344984748451187 0.20372233217930644 -0.0057729387939385451 -0.060287355475656779 0.053503007781940719 -0.047286382251244652 0.062513651181553762 -0.052766125875341734 0.11490393166080518 -0.06084335295321476 0.081637679501962601 0.17956985332477138 -0.0030752622444336969 -0.077787426755518002 0.040266075605548075 -0.027972544024083418 0.18269684675378506 0 -0.012619494131375007 -0.0036469756101851838 0.20502587928249147 -0.028513045108388431 0.12275900143768403 0.11432474121655307 -0.06681611288123139
leaf_count=562 2624 79 33 123 530 107 128 52 519 50 385 93 515 22 190 35 41 36 300 58 146 100 60 75 21 85 25 235 40 79
internal_value=0 0.16282 0.335148 0.162292 -0.533036 -0.0997181 0.485269 1.15561 -0.0449616 -0.396849 0.10513 -0.235799 0.0569057 -0.323155 0.20281 0.32018 -0.0484457 1.05937 -0.320773 -0.514198 0.657593 1.30612 0.336288 0.754982 1.1578 1.44945 0.891751 1.11069 0.808161 0
internal_count=7348 3907 2298 1959 3441 817 287 180 1609 569 1040 478 1717 537 1180 990 470 77 393 358 520 133 387 241 166 145 339 260 242 119
shrinkage=0.1


Tree=12
num_leaves=31
num_cat=2
split_feature=79 94 47 1 1 61 53 353 1 72 80 79 68 48 192 53 156 3 83 12 49 1 1 376 77 566 247 626 18 353
split_gain=25.6852 10.2789 10.2472 8.8615 7.86716 7.54802 7.3311 7.09781 13.3794 7.67177 7.06111 6.23773 6.48531 8.19412 6.04216 5.7291 5.44477 5.36183 5.67247 5.38618 5.19592 5.085 5.10391 5.32958 5.70151 5.13876 5.01971 4.79776 4.77762 6.22298
threshold=0.80457746478873204 0.12234042553191503 8.5000000000000018 0.044792218525503857 0.55454237216300417 2.5000000000000004 4.5000000000000009 1.5000000000000002 0.82445273262836649 1.5000000000000002 0.91379310344827613 0.72124413145539912 1.5000000000000002 1.5000000000000002 4.5000000000000009 9.5000000000000018 3.5000000000000004 1.0000000180025095e-35 2.5000000000000004 3.5000000000000004 2.5000000000000004 0.91332090105744956 0.8671406471847255 2.5000000000000004 1.5000000000000002 0 1.0000000180025095e-35 1 1.5000000000000002 5.5000000000000009
decision_type=2 10 10 2 2 10 8 8 2 10 10 2 8 10 10 10 8 8 8 8 10 2 2 8 8 1 10 9 8 10
left_child=1 2 3 -1 -4 7 -6 8 -3 10 11 12 13 -9 -2 -16 -10 18 -7 -19 -21 22 23 -5 -25 -24 -12 -8 -13 -30
right_child=14 5 4 21 6 17 27 9 16 -11 26 28 -14 -15 15 -17 -18 19 -20 20 -22 -23 25 24 -26 -27 -28 -29 29 -31
leaf_value=0.17358094629024226 -0.077898564157620365 -0.0087638702654554319 0.0061222479782454351 -0.011084107273742747 0.066128901943952212 0.076856835195433931 0.28004958981780631 0.21314895380066137 -0 0.12195351297751918 0.036093209767546562 -0.082446429109300001 -0.0011801827057472502 -0.030198058262594085 -0.023113692023279123 0.18623285478794349 0.21037238508057757 -0.085438539075300746 -0.047190789231703709 -0.038157040237473294 0.12134034113739628 -0.066881415196191646 0.011729128701721788 0.16184586362121639 0.016896217526234096 0.21989185171183095 -0.071896902928284948 0.017879377151185236 -0.033972637858727409 0.082493945610942268
leaf_count=29 2255 360 139 723 144 312 57 42 24 29 56 300 106 21 80 23 57 119 48 69 57 115 48 30 202 29 1233 26 435 180
internal_value=0 0.106742 0.350896 0.153432 0.889879 -0.0520912 1.28918 -0.181022 0.2762 -0.310828 -0.366394 -0.0458821 0.57105 1.40084 -0.667335 0.300706 1.60328 0.326201 0.583094 -0.179674 0.388604 0.0706326 0.166971 0.0645821 0.523463 1.01598 -0.624518 2.23621 -0.286032 -0
internal_count=7348 4990 1542 1176 366 3448 227 2843 441 2402 2373 1084 169 63 2358 103 81 605 360 245 126 1147 1032 955 232 77 1289 83 915 615
cat_boundaries=0 1 2
cat_threshold=2 4
shrinkage=0.1


Tree=13
num_leaves=31
num_cat=0
split_feature=454 23 79 52 157 57 62 47 51 50 53 28 67 406 61 49 353 79 58 50 6 6 80 67 51 1 157 53 53 157
split_gain=18.7108 13.5569 15.1152 7.90571 7.78755 6.44359 8.11572 6.42055 6.67544 7.14798 10.4145 8.01892 10.4002 9.47713 6.92455 6.10805 5.93577 5.68111 5.42725 4.94814 4.73137 4.14207 6.94498 4.13849 4.07899 4.01513 3.98969 3.95525 3.87612 3.77224
threshold=4.5000000000000009 1.0000000180025095e-35 0.74706572769953061 3.5000000000000004 0.13541666666666655 1.5000000000000002 1.5000000000000002 2.5000000000000004 6.5000000000000009 4.5000000000000009 5.5000000000000009 2.5000000000000004 4.5000000000000009 0.14062500000000003 3.5000000000000004 3.5000000000000004 3.5000000000000004 0.82218309859154903 3.5000000000000004 1.5000000000000002 3.5000000000000004 1.0000000180025095e-35 0.93375680580762277 1.5000000000000002 1.5000000000000002 0.30821801691072054 0.55208333333333359 4.5000000000000009 5.5000000000000009 0.17708333333333351
decision_type=8 10 2 8 2 10 8 8 10 8 10 10 8 8 10 10 10 2 10 10 10 8 8 10 8 2 2 8 8 2
left_child=20 2 3 4 15 6 18 -8 9 10 14 12 23 -14 25 16 19 -15 29 -2 -1 22 -7 -11 -12 -9 -5 -13 -21 -3
right_child=1 5 -4 26 -6 21 7 8 -10 11 24 27 13 17 -16 -17 -18 -19 -20 28 -22 -23 -24 -25 -26 -27 -28 -29 -30 -31
leaf_value=-0.078080049856103451 -0 -0.042832506219077332 -0.053213707068679464 -0.056289690541691785 0.0048746778377549904 -0.02567997845404011 -0.018477888647273066 0.15439601216910362 -0.013428751895277237 0.14238180080968482 0.079323983258061892 0.13967048044475799 -0 0.4216701732919626 0.17975875238500652 -0.0089902843156941387 -0.0059550424778174087 0 -0.077411411334605565 0.17073648580124323 0.0556151629724893 -0.038051805643304043 0.19461102234914615 -0.019002182503114882 -0.045274523762201452 0.040870846904549285 0.077211594738067935 0 -0 0.061042397696932121
leaf_count=1425 26 49 2222 414 757 55 102 38 196 26 32 39 20 63 48 76 57 24 215 126 38 335 33 38 184 399 38 119 20 134
internal_value=0 0.0942714 -0.116468 0.131573 0.296933 0.323151 0.420746 0.54918 0.637972 0.734001 0.529817 1.31615 2.0678 3.18408 0.775728 0.782853 1.05563 3.71524 -0.113861 1.30739 -0.682086 -0.148797 0.652818 0.566919 -0.168114 0.566725 -0.403038 0.537334 1.53554 0.233922
internal_count=7348 5885 3736 1514 1062 2149 1726 1328 1226 1030 701 329 171 107 485 305 229 87 398 172 1463 423 88 64 216 437 452 158 146 183
shrinkage=0.1


Tree=14
num_leaves=31
num_cat=0
split_feature=79 19 51 351 29 47 90 61 211 35 29 237 39 527 203 35 203 191 249 47 0 52 43 237 0 0 52 61 79 351
split_gain=23.3882 14.1971 6.35312 5.50636 6.28524 5.98192 5.94873 7.50685 5.71609 5.07947 4.96292 4.95485 4.73431 4.72446 6.00597 5.0617 4.81529 4.84897 4.63252 4.90157 4.41906 4.36608 6.75622 4.17855 4.78556 5.93867 6.10476 7.15411 4.32191 4.16223
threshold=0.74002347417840408 1.0000000180025095e-35 5.5000000000000009 2.5000000000000004 3.5000000000000004 8.5000000000000018 1.5000000000000002 2.5000000000000004 3.5000000000000004 3.5000000000000004 3.5000000000000004 0.9355716878402901 2.5000000000000004 2.5000000000000004 7.5000000000000009 1.5000000000000002 2.5000000000000004 1.5000000000000002 0.067708333333333356 8.5000000000000018 0.26041666666666657 2.5000000000000004 4.5000000000000009 0.86842105263157909 0.23958333333333351 0.093750000000000167 3.5000000000000004 2.5000000000000004 0.72946009389671407 2.5000000000000004
decision_type=2 10 10 8 8 10 8 10 8 8 8 10 8 10 8 10 10 10 8 10 2 8 10 8 2 2 10 10 2 10
left_child=3 29 9 4 8 6 7 -5 23 13 -9 12 -6 16 -15 -16 17 -3 -11 -20 -21 22 -8 -1 25 -25 27 -27 -26 -2
right_child=1 2 -4 5 11 -7 21 10 -10 18 -12 -13 -14 14 15 -17 -18 -19 19 20 -22 -23 -24 24 28 26 -28 -29 -30 -31
leaf_value=-0.062180158437635927 -0.062330460467351446 0.19204474586650322 -0.04295065236179213 -0.042034351447028828 -0.016777732583179741 0.053275129720280971 -0 0.13325241577133315 -0.01773270350891459 0.21660313047335245 0 0.19307768368363876 0.1497996235481843 -0.051466648393755678 0.13800136188829101 -0.0060021052742244597 -0.024401109493590187 -0 0 0.18718517659177122 -0 -0.013102272315467118 0.2105463201562281 -0 -0.0010681195978937818 0.15290359872765785 -0 0 0.10256526891805023 0.065816979582147439
leaf_count=27 3335 37 622 746 52 269 32 24 254 23 110 56 29 525 85 130 45 30 186 36 23 45 25 57 216 160 53 34 55 27
internal_value=0 -0.293684 0.0326762 0.255538 0.438782 0.061615 -0.0825086 -0.214284 0.315377 0.236369 0.439651 1.17963 0.320555 0 -0.188056 0.48041 0.702531 1.24078 0.699758 0.398917 1.24819 0.65934 1.16341 0.46715 0.531701 0.800805 1.0236 1.24338 0.156117 -0.583302
internal_count=7348 5104 1742 2244 993 1251 982 880 856 1120 134 137 81 852 740 215 112 67 268 245 59 102 57 602 575 304 247 194 271 3362
shrinkage=0.1


Tree=15
num_leaves=31
num_cat=1
split_feature=393 240 55 156 311 67 63 158 44 41 514 59 393 62 170 80 52 92 61 68 253 0 50 569 196 41 78 565 191 41
split_gain=17.4818 9.11754 9.38964 10.04 6.68265 8.35056 6.77375 5.97111 6.65609 6.68914 6.59246 6.15173 8.81612 11.2215 5.5367 5.84629 5.37515 5.24719 8.18941 5.22914 5.40342 5.10479 5.0326 4.58488 4.36759 4.33994 5.37865 4.28598 4.23075 5.71816
threshold=0.82218309859154903 2.5000000000000004 7.5000000000000009 1.0000000180025095e-35 1.5000000000000002 7.5000000000000009 4.5000000000000009 0.61076098243234667 3.5000000000000004 7.5000000000000009 6.5000000000000009 1.5000000000000002 0.72593896713615014 1.5000000000000002 2.5000000000000004 0.88475499092559018 3.5000000000000004 1.0000000180025095e-35 1.5000000000000002 6.5000000000000009 1.5000000000000002 0.38541666666666652 1.5000000000000002 0 2.5000000000000004 3.5000000000000004 4.5000000000000009 0.76063829787234061 2.5000000000000004 2.5000000000000004
decision_type=2 10 10 10 8 8 10 2 8 10 10 10 2 10 10 10 10 10 10 10 10 2 10 9 8 10 10 10 8 10
left_child=1 2 3 7 5 16 17 8 9 11 -10 21 -13 -14 27 -16 -4 18 -6 20 -7 22 -1 25 28 -5 -27 -2 29 -3
right_child=14 24 4 23 6 19 -8 -9 10 -11 -12 12 13 -15 15 -17 -18 -19 -20 -21 -22 -23 -24 -25 -26 26 -28 -29 -30 -31
leaf_value=-0 -0.090041929032195892 0.15022162715996545 0.07145823253783494 -5.970847638384305e-05 0 0.28618872337826695 -0.016138233294405391 0.0037230892239437856 -0.057735550668218817 -0.0650077264577089 0.084083958070665418 -0.00032934646112049541 -0.0037407006508698507 0.16274327816525858 0.19164773844733418 -0.041943264747423749 -0.032611427847895023 -0 0.33282511196988163 0 0.045432000420948936 0 0.17956219057049666 0.10300800639302994 -0.081603443361311687 -0.074901205027471704 0.0023537739751774158 0.049774469898515666 -0.046356796285579684 -0.011934699565382283
leaf_count=23 1686 31 135 966 32 39 20 1048 183 59 83 167 104 132 20 42 356 26 34 67 83 35 119 30 436 679 342 65 208 98
internal_value=0 0.0980775 0.163805 0.0812479 0.653316 0.400991 1.64824 0.248615 0.470846 0.640833 -0.101106 0.737433 0.442054 0.994933 -0.673877 0.482201 0.0116129 2.11428 2.58704 1.22521 1.74325 1.28733 1.5453 -0.199085 -0.411957 -0.250536 -0.496581 -0.806777 -0.00972042 0.527206
internal_count=7348 5535 4762 3970 792 680 112 1953 905 639 266 580 403 236 1813 62 491 92 66 189 122 177 142 2017 773 1987 1021 1751 337 129
cat_boundaries=0 1
cat_threshold=2
shrinkage=0.1


Tree=16
num_leaves=31
num_cat=0
split_feature=140 192 81 49 63 37 237 94 97 45 155 56 38 217 381 216 94 208 219 78 1 54 94 237 208 217 0 12 57 237
split_gain=21.4353 10.7573 9.12243 7.76086 7.9948 6.99075 8.57619 7.17305 6.84993 6.37101 6.02693 5.80042 6.23516 5.63743 8.46377 5.37472 5.01264 6.01213 5.07105 4.97849 4.60852 4.4334 4.3509 4.96827 5.85662 4.30378 7.18481 5.61573 4.12095 3.85064
threshold=5.5000000000000009 5.5000000000000009 2.0000000000000004 1.5000000000000002 1.5000000000000002 1.5000000000000002 0.88112522686025418 0.35638297872340402 1.5000000000000002 2.5000000000000004 2.5000000000000004 8.5000000000000018 3.5000000000000004 1.5000000000000002 1.5000000000000002 3.5000000000000004 0.12234042553191503 2.5000000000000004 1.5000000000000002 1.5000000000000002 0.56723388925385165 2.5000000000000004 0.16489361702127653 0.87568058076225064 4.5000000000000009 1.5000000000000002 0.093750000000000167 1.0000000180025095e-35 4.5000000000000009 0.91923774954627946
decision_type=8 10 8 8 10 10 8 8 8 8 8 10 10 10 8 8 10 8 10 10 2 10 10 8 10 8 2 10 8 8
left_child=13 2 3 4 22 10 7 -7 -3 29 19 15 -13 -1 -15 16 -12 18 -18 25 -10 -20 -2 -24 -25 -5 -27 -28 -21 -8
right_child=1 8 -4 5 -6 6 9 -9 20 -11 11 12 -14 14 -16 -17 17 -19 21 28 -22 -23 23 24 -26 26 27 -29 -30 -31
leaf_value=-0.067039527820128633 0.038635797972456337 0.20739354817991773 -0.060251791535852951 -0.013627529456227345 -0.029346163507674584 -0 -0.0057458114224277117 0.18904461221716862 -0.060312134647244643 -0.038643854006350092 -0.01268520146634447 0.25505053747452938 -0.003301525327847059 0.12402029804906518 -0.040124446386196645 -0.04650418609901643 0 -0 0.30210298689885773 -0.044894189490988855 0.088609343770883781 0 -0 0.1714665926340288 -0 0.19474821724962446 -0.04142379600127926 0.12211159898425526 0.12263113118414935 0.087241821209179102
leaf_count=2174 322 38 504 518 178 31 54 49 44 236 90 40 31 64 325 235 41 85 24 1708 57 21 29 109 40 25 120 29 27 100
internal_value=0 0.128396 0.0770039 0.137856 0.464069 0.019491 0.410072 1.32027 1.07958 0.114274 -0.0909064 0.325808 1.67078 -0.513788 0 0.120501 0.493057 0.942989 1.572 -0.211011 0.29405 2.27861 0.649184 1.13778 1.39509 0.0463936 0.586158 0.0218925 -0.402451 0.542787
internal_count=7348 4785 4646 4142 678 3464 470 80 139 390 2994 567 71 2563 389 496 261 171 86 2427 101 45 500 178 149 692 174 149 1735 154
shrinkage=0.1


Tree=17
num_leaves=31
num_cat=0
split_feature=79 149 31 28 204 45 153 52 215 0 62 53 94 79 66 55 42 23 43 94 204 68 206 0 60 80 79 66 51 92
split_gain=15.9095 6.9526 7.07251 6.96465 10.2301 6.60869 6.58275 9.17482 5.11728 5.12367 4.5822 4.48291 4.48121 4.37117 7.26474 8.09934 6.73141 5.62349 5.98607 5.47686 4.92358 4.58821 4.09039 4.71571 4.33102 3.82782 3.70158 4.0713 3.68885 3.68361
threshold=0.82687793427230061 1.5000000000000002 1.5000000000000002 9.5000000000000018 7.5000000000000009 5.5000000000000009 1.5000000000000002 3.5000000000000004 5.5000000000000009 0.15625000000000003 1.5000000000000002 1.5000000000000002 0.75000000000000011 0.73884976525821622 9.5000000000000018 6.5000000000000009 3.5000000000000004 1.0000000180025095e-35 9.5000000000000018 0.50531914893617014 2.5000000000000004 5.5000000000000009 1.5000000000000002 0.30208333333333354 2.5000000000000004 0.96642468239564416 0.7282863849765262 7.5000000000000009 2.5000000000000004 0.47916666666666652
decision_type=2 10 8 8 8 10 10 10 10 2 10 10 10 2 10 10 10 10 10 8 10 8 10 2 10 8 2 8 8 8
left_child=1 2 3 5 -5 13 7 11 -8 10 -10 29 -3 20 25 -16 -17 -18 19 -19 -1 22 23 28 26 -15 27 -24 -22 -4
right_child=-2 12 6 4 -6 -7 8 -9 9 -11 -12 -13 -14 14 15 16 17 18 -20 -21 21 -23 24 -25 -26 -27 -28 -29 -30 -31
leaf_value=-0.025401460200276307 -0.074226243268649419 -0.0811195498142009 -0.047334763502813133 0.012968502884828554 0.18303787209106326 0.18295112391184654 0.0085070637914205407 -0.066516738068170392 0 0 0.27651062529009307 -0.012989179318100053 0.083927518973653525 -0.044580456907656274 -0.042359238690882879 -0.040114912943424751 -0.015092041636459464 0.32416249680376308 0.033145966311211521 0 0.06817199648166905 0.1461590992232254 1.7779900365723123e-05 0.12880511457442281 0.082876353102087907 0.049858479111584551 -0.056544676707243016 0.1284707357633865 -0.029830019550152621 0.076209710924269564
leaf_count=131 1675 365 51 198 108 36 402 1105 25 77 31 1029 23 776 150 38 42 50 74 20 51 37 280 63 48 70 132 27 57 177
internal_value=0 0.0658826 0.104158 0.249377 0.872464 0.165662 -0.0754511 -0.211818 0.338504 1.19392 2.03569 0.00180681 -0.613636 0.129008 -0.0911438 0.511412 1.07752 1.48257 1.8171 2.66773 0.274584 0.38522 0.302322 0.670893 0.107616 -0.327509 -0.00850899 0.147984 0.215103 0.521688
internal_count=7348 5673 5285 2388 306 2082 2897 2362 535 133 56 1257 388 2046 1220 374 224 186 144 70 826 695 658 171 487 846 439 307 108 228
shrinkage=0.1


Tree=18
num_leaves=31
num_cat=0
split_feature=79 19 23 83 81 244 244 83 142 94 524 79 155 142 0 46 51 1 199 200 45 67 0 94 0 48 59 64 140 0
split_gain=11.7834 11.094 6.97563 6.39209 6.12393 6.0593 6.32208 5.0374 4.9448 4.75215 4.45892 4.42561 4.16487 4.09195 7.04845 4.5088 4.70188 4.40661 7.54627 7.45329 7.03821 5.92571 4.99732 10.1018 3.58527 5.12475 4.30061 4.66277 3.47092 3.51491
threshold=0.79518779342723012 3.5000000000000004 5.5000000000000009 1.5000000000000002 2.0000000000000004 2.5000000000000004 4.5000000000000009 1.5000000000000002 1.5000000000000002 0.76063829787234061 7.5000000000000009 0.72593896713615014 1.0000000180025095e-35 1.5000000000000002 0.19791666666666655 1.5000000000000002 2.5000000000000004 0.57392612685159705 4.5000000000000009 7.5000000000000009 2.5000000000000004 5.5000000000000009 0.34375000000000011 0.53723404255319174 0.34375000000000011 1.5000000000000002 2.5000000000000004 2.5000000000000004 4.5000000000000009 0.28125000000000006
decision_type=2 10 10 10 10 10 8 10 10 10 10 2 10 10 2 8 10 2 10 10 8 10 2 8 2 8 8 8 8 2
left_child=4 9 3 -3 5 7 8 13 11 12 -11 -7 -2 15 -15 -1 24 22 -19 -20 21 -21 -18 -24 28 -26 -27 -28 -17 -30
right_child=1 2 -4 -5 -6 6 -8 -9 -10 10 -12 -13 -14 14 -16 16 17 18 19 20 -22 -23 23 -25 25 26 27 -29 29 -31
leaf_value=-0.046864428013004965 0.053593092831944626 0.2369810118711112 -0.030376126603340509 -0.0085304315722060792 -0.053891706091645376 0.036144723787283846 -0.0088407894655620264 -0.039334674723509266 -0.019719186257374576 -0.028220133001343597 0.19281366797193214 0.23727804981520206 -0.084614605156215106 0.21042171306707327 -0 -0.060790287909126696 -0 -0.066399701154895061 -0.036123384862046574 0.026090470323514126 0 0.32054328712599833 -0.027137853600235746 0.1693992918190847 -0.040000625965014379 -0.0084856756133759263 0.22170706345322638 -0 0.029114507275238007 0.093801136285423539
leaf_count=153 75 40 48 21 400 37 110 447 25 69 29 63 2402 29 51 82 592 444 239 50 135 25 95 80 245 36 23 32 1127 144
internal_value=0 -0.49325 0.731057 1.63965 0.0576648 0.0993443 0.796443 0.0596844 1.30321 -0.686339 0.533516 1.60716 -0.773874 0.10949 1.0001 0.0832215 0.124775 -0.0546124 -0.279843 0.151725 0.828352 1.80616 0.184585 0.825303 0.256436 -0.0871734 0.663367 1.39552 0.343236 0.382681
internal_count=7348 2684 109 61 4664 4264 235 4029 125 2575 98 100 2477 3582 80 3502 3349 1660 893 449 210 75 767 175 1689 336 91 55 1353 1271
shrinkage=0.1


Tree=19
num_leaves=31
num_cat=0
split_feature=365 140 337 186 49 565 52 41 204 71 200 80 44 337 60 42 50 200 92 79 56 156 565 58 156 80 31 80 1 52
split_gain=18.1393 12.3437 8.40226 8.23753 6.33773 6.07332 5.21453 4.7555 4.30551 4.25622 4.12628 4.11141 6.06144 4.65122 3.88953 5.37106 8.86643 5.34127 5.18605 4.02303 3.83611 3.77059 3.76689 3.74418 5.66866 4.47254 7.12851 4.68331 4.24368 3.60592
threshold=5.5000000000000009 4.5000000000000009 1.5000000000000002 1.5000000000000002 1.5000000000000002 0.2393617021276595 4.5000000000000009 6.5000000000000009 8.5000000000000018 1.5000000000000002 6.5000000000000009 0.88112522686025418 2.5000000000000004 3.5000000000000004 1.5000000000000002 4.5000000000000009 3.5000000000000004 4.5000000000000009 1.0000000180025095e-35 0.80927230046948362 2.5000000000000004 2.5000000000000004 0.60106382978723405 2.5000000000000004 7.0000000000000009 0.9355716878402901 1.5000000000000002 0.90834845735027214 0.55743923371972304 2.5000000000000004
decision_type=10 8 10 8 8 10 10 10 10 10 10 8 10 10 10 10 10 8 10 2 10 10 10 10 8 8 8 10 2 10
left_child=1 -1 4 5 7 -4 8 10 -2 14 23 12 13 -5 20 -16 17 -17 19 -18 22 -14 -6 24 -3 26 -26 29 -27 -28
right_child=6 2 3 11 9 -7 -8 -9 -10 -11 -12 -13 21 -15 15 16 18 -19 -20 -21 -22 -23 -24 -25 25 28 27 -29 -30 -31
leaf_value=-0.06910468384622255 -0.031241915389648774 -0.050217129915997208 0.0038939054842998875 -0.055744481945226555 -0.0060030199704598957 0.2313361057212148 -0.070062859508883732 -0.037442222881650188 0.1357666921918573 0.10547741238315285 0.11529476704322035 0.01587289572755755 0.20370471009771604 0.099253829998548579 -0.023807965206637111 0.099163985998575413 0.26192112663834582 -0.038939016307267239 -0 -0 -0.037993852330446561 0.018942367328301568 0.10523059090689367 -0.010528439047608452 -0.026418675768674502 0 0.20952337195285278 -0 0.17655716450017947 -0
leaf_count=859 78 65 31 31 591 42 1874 131 34 22 104 567 33 20 214 54 59 160 26 21 1819 47 58 172 70 27 29 33 56 21
internal_value=0 0.095762 0.1585 0.46253 0.0376494 1.5453 -0.585569 0.330602 0.317949 -0.0835371 0.454387 0.324331 0.814894 0 -0.11847 0.200742 0.617575 0.0467476 1.80861 2.27018 -0.219759 1.43325 0.0224246 0.286712 0.512366 0.713682 0.286511 1.06947 1.32713 1.63646
internal_count=7348 5362 4503 771 3732 73 1986 708 112 3024 577 698 131 51 3002 534 320 214 106 80 2468 80 649 473 301 236 153 83 83 50
shrinkage=0.1


Tree=20
num_leaves=31
num_cat=1
split_feature=83 51 92 62 77 214 82 52 1 25 53 94 253 213 567 0 0 58 213 49 55 94 60 163 63 1 80 1 1 80
split_gain=8.54652 9.0229 7.81321 6.07205 7.62108 8.4867 9.11301 10.3824 5.9569 5.7687 5.75778 6.94413 5.60514 5.1117 5.42647 4.86378 5.46104 6.25167 4.54749 6.68166 6.46333 6.23969 7.17877 6.02815 5.42833 5.31715 5.45946 5.42941 5.12972 4.71155
threshold=2.5000000000000004 6.5000000000000009 0.47916666666666652 1.5000000000000002 6.5000000000000009 1.5000000000000002 1.5000000000000002 6.5000000000000009 0.47285384305664507 1.0000000180025095e-35 2.5000000000000004 0.22872340425531898 1.5000000000000002 7.5000000000000009 0 0.26041666666666657 0.36458333333333359 2.5000000000000004 4.5000000000000009 2.5000000000000004 2.5000000000000004 0.30319148936170209 1.5000000000000002 2.5000000000000004 1.5000000000000002 0.77749263599567708 0.89382940108892905 0.51757613003030412 0.38654983152853406 0.87931034482758619
decision_type=8 10 8 8 8 10 8 8 2 10 10 8 10 10 9 2 2 10 10 10 10 10 10 8 10 2 8 2 2 10
left_child=1 2 8 10 12 6 7 -6 -1 -3 11 -4 18 -11 -15 -12 17 -17 20 21 23 22 -20 28 25 26 -25 -28 -5 -21
right_child=-2 9 3 4 5 -7 -8 -9 -10 13 15 -13 -14 14 -16 16 -18 -19 19 29 -22 -23 -24 24 -26 -27 27 -29 -30 -31
leaf_value=0.033630587977391616 -0.044159356076450433 -0.079070253805069754 0.096602027142003694 0.10090960377570375 0.27096217410962442 -0.044718411323545933 -0.0070706533094260565 -0 -0.057948510956824253 -0.056798531639925348 -0.065167061642817214 -0 -0.008187748593584232 0.21504679458015175 -0 0.18807059070871365 -0.041717758636888674 -0 0.052417511961434675 0.10177287489160579 -0.037249575435590349 0.042405010296020146 0.2853376967763217 0.24315104831742379 -0.0098229728327424819 0 -0.017596875680831552 0.13291346209052846 -0.0057674541171222607 -0.017255725647310132
leaf_count=302 1266 852 149 35 115 55 49 53 815 91 629 468 732 43 69 50 193 108 65 52 232 133 39 40 81 67 44 54 248 219
internal_value=0 0.0833535 0.1428 0.215047 0.338318 1.17593 1.59433 2.10569 -0.307322 -0.506068 -0.0113566 0.218159 0.261552 0.290136 1.12413 -0.348913 0.126657 0.893041 0.384092 0.711187 0.214696 1.14213 1.83061 0.38013 0.817904 1.07362 1.43436 0.679691 0.0872529 0.134898
internal_count=7348 6082 5027 3910 2313 272 217 168 1117 1055 1597 617 2041 203 112 980 351 158 1309 508 801 237 104 569 286 205 138 98 283 271
cat_boundaries=0 1
cat_threshold=2
shrinkage=0.1


Tree=21
num_leaves=31
num_cat=1
split_feature=297 90 34 50 56 44 58 212 0 6 68 342 175 67 77 94 77 342 53 200 81 342 44 61 571 94 42 56 158 0
split_gain=12.9963 6.7922 8.52213 7.68191 7.79477 6.73521 6.70312 5.39521 5.39117 5.32588 5.29175 5.0471 5.99938 5.03864 4.88357 4.77999 4.5252 3.8121 3.97866 3.6364 4.26608 3.55645 3.53186 3.52286 3.90652 3.51409 6.07533 6.06709 3.51185 3.3728
threshold=5.5000000000000009 1.5000000000000002 2.5000000000000004 5.5000000000000009 8.5000000000000018 1.5000000000000002 6.5000000000000009 7.5000000000000009 0.55208333333333359 1.0000000180025095e-35 3.5000000000000004 9.5000000000000018 5.5000000000000009 3.5000000000000004 4.5000000000000009 0.29255319148936204 6.5000000000000009 6.5000000000000009 5.5000000000000009 5.5000000000000009 2.0000000000000004 2.5000000000000004 2.5000000000000004 2.5000000000000004 0 0.25000000000000006 5.5000000000000009 1.5000000000000002 0.60229290724533258 0.30208333333333354
decision_type=8 8 10 10 10 8 10 10 2 10 8 8 10 10 8 10 8 10 8 10 8 8 10 10 9 8 10 10 2 2
left_child=9 2 3 4 8 -4 14 -6 13 -1 15 17 16 25 21 -10 -13 18 -7 -9 -21 22 -3 24 -15 26 -2 -28 -23 -11
right_child=1 6 5 -5 7 11 -8 19 10 29 -12 12 -14 23 -16 -17 -18 -19 -20 20 -22 28 -24 -25 -26 -27 27 -29 -30 -31
leaf_value=-0.064306112801258794 -0 0.14294230235167735 0.1113416923143602 -0.063410571661905668 -0.041068398820091181 0.046676467232162219 0.18357463113796538 -0.0095343623594096403 0.2013720844135688 -0.01770550960121943 -0.039084102756700427 0.19956106032888621 -0 -0.071639574340719631 -0.036853499278095822 0 -0 -0.063639494849773076 -0.024636368653072796 0.17135132600749758 -0.0046027877238009893 -0.044318264563676824 -0 0.019834812469346361 0.05111491221532867 -0.0075931067091341651 -0.032229621350385894 0.15964564816271914 0.058928791141102901 0.089372695095350285
leaf_count=1967 199 54 76 917 49 226 39 20 43 505 56 50 50 861 87 44 25 99 227 146 32 61 20 93 20 1066 24 108 94 90
internal_value=0 0.116871 0.0505635 -0.0646219 0.0161413 0.38904 0.570539 0.868242 -0.0452312 -0.415597 0.810294 0.195113 0.855742 -0.0984321 0.337066 1.33218 1.52425 0.00669106 0.177641 1.21721 1.44966 0.586086 1.09036 -0.442009 -0.59748 0.0144717 0.410447 1.13374 0.143017 -0
internal_count=7348 4786 4431 3678 2761 753 355 247 2514 2562 143 677 125 2371 316 87 75 552 453 198 178 229 74 974 881 1397 331 132 155 595
cat_boundaries=0 1
cat_threshold=2
shrinkage=0.1


Tree=22
num_leaves=31
num_cat=1
split_feature=236 620 35 204 80 45 235 499 157 499 156 157 80 251 51 251 44 82 68 218 186 186 251 80 54 80 312 65 1 218
split_gain=7.68581 6.44065 5.81879 4.9234 6.23729 5.87303 7.54263 5.50046 5.6486 5.08595 4.27751 4.37287 6.17805 5.28921 4.92486 4.49623 8.25311 4.25664 4.14649 6.4652 4.42947 4.30633 5.69903 7.63836 4.15758 3.7604 4.28423 3.64193 3.58287 3.97044
threshold=0.82922535211267612 0 4.5000000000000009 8.5000000000000018 0.94827586206896564 2.5000000000000004 3.5000000000000004 7.5000000000000009 0.11458333333333352 6.5000000000000009 1.0000000180025095e-35 0.072916666666666671 0.95553539019963707 0.20744680851063854 2.5000000000000004 0.60106382978723405 1.5000000000000002 2.5000000000000004 4.5000000000000009 1.5000000000000002 4.5000000000000009 2.5000000000000004 0.28191489361702154 0.88475499092559018 1.5000000000000002 0.95735027223230518 2.5000000000000004 5.5000000000000009 0.60828582932463104 2.5000000000000004
decision_type=2 9 10 8 8 8 10 8 2 8 10 2 10 10 10 8 10 10 10 10 10 8 8 10 10 10 8 10 2 10
left_child=1 3 -2 9 7 6 25 27 -9 18 11 13 17 -11 -15 -14 -17 -13 20 -20 24 22 -21 -24 -1 26 -6 -5 29 -26
right_child=2 -3 -4 4 5 -7 -8 8 -10 10 -12 12 15 14 -16 16 -18 -19 19 21 -22 -23 23 -25 28 -27 -28 -29 -30 -31
leaf_value=0.058509555302433715 -0.082308524168411876 -0.062154208900494438 0.060314119413900226 -0.030425490866606536 0.15517657574659455 -0.0061394394559623252 0.24696494931759128 -0.041511389638112378 0.072336628321094845 -0 -0.043761162717466051 -0.044357609721215135 -0.011112518149981531 0.23469577770351427 -0 -0.013447767245600331 0.21950528800873551 0.058648630575212947 -0.013524836824114293 0 0.092245230242299414 0.0021003393264846545 0 0.31327606637852845 -0.0065888914819235145 -0 -0.0018700886983129012 0.091720208164332684 -0.029352191280747592 0.060627070985481507
leaf_count=90 1549 418 58 415 52 109 52 93 451 45 1266 629 69 24 23 24 52 84 195 45 47 60 24 43 485 82 20 46 681 117
internal_value=0 0.031786 -0.605917 0.0695985 0.301167 0.811619 1.1336 0.101723 0.46939 -0.0082265 -0.193224 0 -0.111682 0.752005 1.57836 0.660492 1.25092 -0.307574 0.131568 0.628581 0.0458886 1.13069 1.65061 2.25506 -0 0.557636 1.07889 -0.178942 -0.0844921 0.120098
internal_count=7348 5741 1607 5323 1320 315 206 1005 544 4003 2216 950 858 92 47 145 76 713 1787 367 1420 172 112 67 1373 154 72 461 1283 602
cat_boundaries=0 1
cat_threshold=2
shrinkage=0.1


Tree=23
num_leaves=31
num_cat=0
split_feature=296 156 80 54 180 80 42 158 58 192 43 44 410 80 12 78 19 43 196 80 42 80 155 47 66 80 92 79 354 77
split_gain=8.63017 5.34553 10.64 5.57142 6.15707 5.01693 4.92932 7.00131 4.88647 4.84663 4.49629 4.19097 4.40182 4.17366 4.11148 4.00633 6.92065 3.98559 3.96198 4.05407 4.85674 3.65447 5.26126 3.63475 3.6047 3.46435 3.33344 3.22058 3.10242 3.11774
threshold=1.0000000180025095e-35 7.0000000000000009 0.91197822141560814 9.5000000000000018 5.5000000000000009 0.92649727767695111 3.5000000000000004 0.4671597194261376 9.5000000000000018 4.5000000000000009 8.5000000000000018 6.5000000000000009 1.5000000000000002 0.9210526315789469 1.5000000000000002 3.5000000000000004 3.5000000000000004 2.5000000000000004 5.5000000000000009 0.92286751361161512 3.5000000000000004 0.90290381125226915 2.5000000000000004 4.5000000000000009 6.5000000000000009 0.95916515426497317 1.0000000180025095e-35 0.8186619718309861 1.5000000000000002 4.5000000000000009
decision_type=10 8 10 8 8 8 8 2 8 10 10 10 10 10 8 10 8 8 8 10 10 10 8 8 10 10 10 2 10 8
left_child=1 2 3 11 -5 13 7 -7 15 17 28 21 26 24 25 16 18 -4 19 20 -2 -1 -23 -10 -3 -9 -13 -12 -8 -30
right_child=8 5 9 4 -6 6 10 14 23 -11 27 12 -14 -15 -16 -17 -18 -19 -20 -21 -22 22 -24 -25 -26 -27 -28 -29 29 -31
leaf_value=-0.02264259442873583 -0.0099806977408763986 -0.00014415344380375565 0.056728297335501825 0.20607630057197068 -0.019565307514540706 -0.022612248372156585 -0.067539818834558965 0.17077048181195531 0.17490761154203865 0.02262969609482612 0.17368634246473758 0.17567734613383251 -0.0020126120452982599 -0.071130371386303015 0.033583861360394131 -0.074959781377782642 -0.066549926479698179 -0.065761315328193778 -0.060194162583378258 -0.0091836347187445547 0.14412635171207314 0 0.19526880594438112 -0 0.065782422460073917 0.012118869845173874 -0 -0 0.032204663041122045 -0.036280198897641287
leaf_count=763 34 807 31 61 35 61 75 76 37 100 40 55 79 102 128 1670 549 1336 105 85 91 133 34 77 214 24 21 40 345 140
internal_value=0 0.0497867 -0.131027 0.213168 1.33541 0.173316 0.374541 0.71908 -0.386276 -0.451252 0.130598 0.0814765 0.795281 -0 0.974186 -0.464503 -0.152849 -0.583706 0.311496 0.598701 1.01269 -0.0413781 0.539461 0.721312 0.0744832 1.38804 1.39703 1.23414 0.0116762 0.141322
internal_count=7348 4700 2648 1181 96 2052 929 289 2648 1467 640 1085 155 1123 228 2534 864 1367 315 210 125 930 167 114 1021 100 76 80 560 485
shrinkage=0.1


end of trees

feature importances:
x_80=39
x_81=31
x_1=30
x_2=27
x_95=25
x_54=15
x_43=15
x_52=14
x_48=14
x_62=12
x_93=12
x_81=10
x_1=9
x_59=9
x_53=9
x_45=9
x_57=8
x_63=7
x_78=7
x_44=7
x_69=7
x_50=7
x_157=7
x_157=7
x_45=7
x_48=7
x_97=7
x_79=7
x_29=6
x_81=6
x_95=6
x_7=6
x_51=6
x_36=6
x_42=6
x_64=6
x_68=6
x_56=6
x_95=6
x_67=6
x_95=6
x_156=5
x_58=5
x_91=5
x_84=5
x_62=5
x_60=5
x_55=5
x_40=5
x_35=5
x_30=5
x_13=5
x_61=4
x_143=4
x_47=4
x_140=4
x_20=4
x_44=4
x_19=4
x_24=4
x_40=4
x_56=4
x_38=4
x_97=4
x_46=4
x_47=4
x_80=3
x_43=3
x_40=3
x_36=3
x_30=3
x_93=3
x_51=3
x_52=3
x_29=3
x_2=3
x_59=3
x_80=3
x_156=3
x_93=3
x_83=3
x_99=3
x_14=3
x_141=3
x_82=3
x_2=3
x_61=2
x_52=2
x_57=2
x_29=2
x_41=2
x_155=2
x_49=2
x_65=2
x_26=2
x_79=2
x_80=2
x_66=2
x_69=2
x_83=2
x_88=2
x_38=2
x_32=2
x_8=2
x_96=2
x_156=2
x_154=2
x_41=2
x_39=2
x_22=2
x_24=2
x_24=2
x_35=2
x_41=1
x_27=1
x_63=1
x_48=1
x_141=1
x_60=1
x_68=1
x_22=1
x_16=1
x_97=1
x_4=1
x_44=1
x_50=1
x_54=1
x_57=1
x_97=1
x_98=1
x_99=1
x_101=1
x_150=1
x_154=1
x_10=1
x_58=1
x_14=1
x_19=1
x_8=1
x_7=1
x_38=1
x_5=1
x_150=1
x_46=1
x_139=1
x_50=1
x_98=1
x_53=1
x_54=1
x_55=1
x_35=1
x_60=1
x_73=1
x_63=1
x_64=1
x_78=1
x_72=1
x_82=1
x_84=1
x_91=1
x_140=1
x_141=1
x_142=1
x_33=1
x_14=1

parameters:
[boosting: gbdt]
[objective: binary]
[metric: binary_logloss]
[tree_learner: serial]
[device_type: cpu]
[data: ]
[valid: ]
[num_iterations: 100]
[learning_rate: 0.1]
[num_leaves: 31]
[num_threads: 0]
[max_depth: 21]
[min_data_in_leaf: 20]
[min_sum_hessian_in_leaf: 0.001]
[bagging_fraction: 0.7]
[bagging_freq: 1]
[bagging_seed: 3]
[feature_fraction: 0.7]
[feature_fraction_seed: 2]
[early_stopping_round: 0]
[max_delta_step: 0]
[lambda_l1: 0.7]
[lambda_l2: 0.7]
[min_gain_to_split: 0]
[drop_rate: 0.1]
[max_drop: 50]
[skip_drop: 0.5]
[xgboost_dart_mode: 0]
[uniform_drop: 0]
[drop_seed: 4]
[top_rate: 0.2]
[other_rate: 0.1]
[min_data_per_group: 100]
[max_cat_threshold: 32]
[cat_l2: 10]
[cat_smooth: 10]
[max_cat_to_onehot: 4]
[top_k: 20]
[monotone_constraints: ]
[feature_contri: ]
[forcedsplits_filename: ]
[refit_decay_rate: 0.9]
[verbosity: 0]
[max_bin: 127]
[min_data_in_bin: 3]
[bin_construct_sample_cnt: 200000]
[histogram_pool_size: -1]
[data_random_seed: 1]
[output_model: LightGBM_model.txt]
[snapshot_freq: -1]
[input_model: ]
[output_result: LightGBM_predict_result.txt]
[initscore_filename: ]
[valid_data_initscores: ]
[pre_partition: 0]
[enable_bundle: 1]
[max_conflict_rate: 0]
[is_enable_sparse: 1]
[sparse_threshold: 0.8]
[use_missing: 1]
[zero_as_missing: 0]
[two_round: 0]
[save_binary: 0]
[enable_load_from_binary_file: 1]
[header: 0]
[label_column: ]
[weight_column: ]
[group_column: ]
[ignore_column: ]
[categorical_feature: ]
[predict_raw_score: 0]
[predict_leaf_index: 0]
[predict_contrib: 0]
[num_iteration_predict: -1]
[pred_early_stop: 0]
[pred_early_stop_freq: 10]
[pred_early_stop_margin: 10]
[convert_model_language: ]
[convert_model: gbdt_prediction.cpp]
[num_class: 1]
[is_unbalance: 0]
[scale_pos_weight: 1]
[sigmoid: 1]
[boost_from_average: 1]
[reg_sqrt: 0]
[alpha: 0.9]
[fair_c: 1]
[poisson_max_delta_step: 0.7]
[tweedie_variance_power: 1.5]
[max_position: 20]
[label_gain: ]
[metric_freq: 1]
[is_provide_training_metric: 0]
[eval_at: ]
[num_machines: 1]
[local_listen_port: 12400]
[time_out: 120]
[machine_list_filename: ]
[machines: ]
[gpu_platform_id: -1]
[gpu_device_id: -1]
[gpu_use_dp: 0]

end of parameters

pandas_categorical:[]
